<?xml version="1.0"?>
<opencv_storage>
<cascade>
  <stageType>BOOST</stageType>
  <featureType>HAAR</featureType>
  <height>20</height>
  <width>20</width>
  <stageParams>
    <boostType>GAB</boostType>
    <minHitRate>9.9500000476837158e-01</minHitRate>
    <maxFalseAlarm>5.0000000000000000e-01</maxFalseAlarm>
    <weightTrimRate>9.4999999999999996e-01</weightTrimRate>
    <maxDepth>1</maxDepth>
    <maxWeakCount>100</maxWeakCount></stageParams>
  <featureParams>
    <maxCatCount>0</maxCatCount>
    <featSize>1</featSize>
    <mode>BASIC</mode></featureParams>
  <stageNum>9</stageNum>
  <stages>
    <!-- stage 0 -->
    <_>
      <maxWeakCount>2</maxWeakCount>
      <stageThreshold>-8.2973882555961609e-02</stageThreshold>
      <weakClassifiers>
        <_>
          <internalNodes>
            0 -1 28 -6.4008352637756616e-05</internalNodes>
          <leafValues>
            -8.5411763191223145e-01 7.4530613422393799e-01</leafValues></_>
        <_>
          <internalNodes>
            0 -1 6 -3.8155869115144014e-03</internalNodes>
          <leafValues>
            7.7114379405975342e-01 -6.8708890676498413e-01</leafValues></_></weakClassifiers></_>
    <!-- stage 1 -->
    <_>
      <maxWeakCount>4</maxWeakCount>
      <stageThreshold>-6.3796341419219971e-01</stageThreshold>
      <weakClassifiers>
        <_>
          <internalNodes>
            0 -1 1 9.8795313388109207e-03</internalNodes>
          <leafValues>
            -4.4323483109474182e-01 8.2919561862945557e-01</leafValues></_>
        <_>
          <internalNodes>
            0 -1 18 5.9265792369842529e-03</internalNodes>
          <leafValues>
            -4.6844705939292908e-01 7.9329341650009155e-01</leafValues></_>
        <_>
          <internalNodes>
            0 -1 14 -4.3624034151434898e-03</internalNodes>
          <leafValues>
            7.5106543302536011e-01 -4.7516360878944397e-01</leafValues></_>
        <_>
          <internalNodes>
            0 -1 10 -6.3326489180326462e-03</internalNodes>
          <leafValues>
            7.4888211488723755e-01 -4.7096151113510132e-01</leafValues></_></weakClassifiers></_>
    <!-- stage 2 -->
    <_>
      <maxWeakCount>5</maxWeakCount>
      <stageThreshold>-6.3755184412002563e-01</stageThreshold>
      <weakClassifiers>
        <_>
          <internalNodes>
            0 -1 26 -5.4583077144343406e-05</internalNodes>
          <leafValues>
            6.0088366270065308e-01 -9.1095888614654541e-01</leafValues></_>
        <_>
          <internalNodes>
            0 -1 13 9.6295773983001709e-03</internalNodes>
          <leafValues>
            -4.4844397902488708e-01 7.9475528001785278e-01</leafValues></_>
        <_>
          <internalNodes>
            0 -1 9 2.3449966683983803e-03</internalNodes>
          <leafValues>
            -5.1077210903167725e-01 6.3288110494613647e-01</leafValues></_>
        <_>
          <internalNodes>
            0 -1 3 8.0888513475656509e-03</internalNodes>
          <leafValues>
            -4.9527856707572937e-01 7.0935356616973877e-01</leafValues></_>
        <_>
          <internalNodes>
            0 -1 2 8.7529337033629417e-03</internalNodes>
          <leafValues>
            -6.5835195779800415e-01 5.2326965332031250e-01</leafValues></_></weakClassifiers></_>
    <!-- stage 3 -->
    <_>
      <maxWeakCount>1</maxWeakCount>
      <stageThreshold>6.0439562797546387e-01</stageThreshold>
      <weakClassifiers>
        <_>
          <internalNodes>
            0 -1 34 -9.6303957980126143e-04</internalNodes>
          <leafValues>
            -9.6491229534149170e-01 6.0439562797546387e-01</leafValues></_></weakClassifiers></_>
    <!-- stage 4 -->
    <_>
      <maxWeakCount>5</maxWeakCount>
      <stageThreshold>-6.4872199296951294e-01</stageThreshold>
      <weakClassifiers>
        <_>
          <internalNodes>
            0 -1 22 4.8930902266874909e-05</internalNodes>
          <leafValues>
            -6.6183573007583618e-01 6.6666668653488159e-01</leafValues></_>
        <_>
          <internalNodes>
            0 -1 19 1.4660222455859184e-02</internalNodes>
          <leafValues>
            -4.6961879730224609e-01 6.9032835960388184e-01</leafValues></_>
        <_>
          <internalNodes>
            0 -1 17 1.4014811255037785e-02</internalNodes>
          <leafValues>
            -3.8334909081459045e-01 7.5051933526992798e-01</leafValues></_>
        <_>
          <internalNodes>
            0 -1 30 4.9805606249719858e-04</internalNodes>
          <leafValues>
            3.6817544698715210e-01 -9.5705109834671021e-01</leafValues></_>
        <_>
          <internalNodes>
            0 -1 16 1.6730271279811859e-02</internalNodes>
          <leafValues>
            -5.6866592168807983e-01 4.9790617823600769e-01</leafValues></_></weakClassifiers></_>
    <!-- stage 5 -->
    <_>
      <maxWeakCount>5</maxWeakCount>
      <stageThreshold>-8.9689093828201294e-01</stageThreshold>
      <weakClassifiers>
        <_>
          <internalNodes>
            0 -1 32 4.4303841423243284e-04</internalNodes>
          <leafValues>
            -7.9827088117599487e-01 6.3468915224075317e-01</leafValues></_>
        <_>
          <internalNodes>
            0 -1 15 -3.3684219233691692e-03</internalNodes>
          <leafValues>
            7.1199971437454224e-01 -4.3690642714500427e-01</leafValues></_>
        <_>
          <internalNodes>
            0 -1 38 -4.0653599426150322e-03</internalNodes>
          <leafValues>
            6.4467591047286987e-01 -5.0830131769180298e-01</leafValues></_>
        <_>
          <internalNodes>
            0 -1 7 -2.1997496951371431e-03</internalNodes>
          <leafValues>
            5.1445817947387695e-01 -5.9320878982543945e-01</leafValues></_>
        <_>
          <internalNodes>
            0 -1 35 -2.9198837000876665e-04</internalNodes>
          <leafValues>
            -9.6295541524887085e-01 2.9089030623435974e-01</leafValues></_></weakClassifiers></_>
    <!-- stage 6 -->
    <_>
      <maxWeakCount>5</maxWeakCount>
      <stageThreshold>-9.0136116743087769e-01</stageThreshold>
      <weakClassifiers>
        <_>
          <internalNodes>
            0 -1 27 6.0705532087013125e-04</internalNodes>
          <leafValues>
            6.1619192361831665e-01 -8.6075949668884277e-01</leafValues></_>
        <_>
          <internalNodes>
            0 -1 4 -8.0942716449499130e-03</internalNodes>
          <leafValues>
            6.8487101793289185e-01 -4.4756636023521423e-01</leafValues></_>
        <_>
          <internalNodes>
            0 -1 36 -5.0312261009821668e-05</internalNodes>
          <leafValues>
            3.8999834656715393e-01 -7.1694141626358032e-01</leafValues></_>
        <_>
          <internalNodes>
            0 -1 11 -3.4408296924084425e-03</internalNodes>
          <leafValues>
            4.6429869532585144e-01 -6.0803890228271484e-01</leafValues></_>
        <_>
          <internalNodes>
            0 -1 29 -4.6357174869626760e-04</internalNodes>
          <leafValues>
            -9.5247900485992432e-01 2.5499364733695984e-01</leafValues></_></weakClassifiers></_>
    <!-- stage 7 -->
    <_>
      <maxWeakCount>6</maxWeakCount>
      <stageThreshold>-3.8124471902847290e-01</stageThreshold>
      <weakClassifiers>
        <_>
          <internalNodes>
            0 -1 31 6.0276768635958433e-04</internalNodes>
          <leafValues>
            6.2658226490020752e-01 -6.2694299221038818e-01</leafValues></_>
        <_>
          <internalNodes>
            0 -1 8 -2.0007793791592121e-03</internalNodes>
          <leafValues>
            5.0283455848693848e-01 -5.7188612222671509e-01</leafValues></_>
        <_>
          <internalNodes>
            0 -1 23 -5.3226664022076875e-05</internalNodes>
          <leafValues>
            4.1424384713172913e-01 -7.6035803556442261e-01</leafValues></_>
        <_>
          <internalNodes>
            0 -1 20 1.1152442544698715e-02</internalNodes>
          <leafValues>
            -4.8833176493644714e-01 7.2089493274688721e-01</leafValues></_>
        <_>
          <internalNodes>
            0 -1 25 -2.1804647985845804e-04</internalNodes>
          <leafValues>
            -9.1135764122009277e-01 3.2611820101737976e-01</leafValues></_>
        <_>
          <internalNodes>
            0 -1 5 -1.0662689805030823e-02</internalNodes>
          <leafValues>
            5.6555408239364624e-01 -4.5835226774215698e-01</leafValues></_></weakClassifiers></_>
    <!-- stage 8 -->
    <_>
      <maxWeakCount>6</maxWeakCount>
      <stageThreshold>-1.0000754594802856e+00</stageThreshold>
      <weakClassifiers>
        <_>
          <internalNodes>
            0 -1 33 -1.1829291906906292e-04</internalNodes>
          <leafValues>
            6.0330575704574585e-01 -7.9310345649719238e-01</leafValues></_>
        <_>
          <internalNodes>
            0 -1 21 9.7278729081153870e-03</internalNodes>
          <leafValues>
            -4.1688680648803711e-01 6.2039655447006226e-01</leafValues></_>
        <_>
          <internalNodes>
            0 -1 0 8.4957033395767212e-03</internalNodes>
          <leafValues>
            -6.2322372198104858e-01 4.7274988889694214e-01</leafValues></_>
        <_>
          <internalNodes>
            0 -1 12 -2.2182627581059933e-03</internalNodes>
          <leafValues>
            6.3519906997680664e-01 -4.9180462956428528e-01</leafValues></_>
        <_>
          <internalNodes>
            0 -1 37 -4.1795196011662483e-03</internalNodes>
          <leafValues>
            5.3633821010589600e-01 -4.8228657245635986e-01</leafValues></_>
        <_>
          <internalNodes>
            0 -1 24 2.4575495626777411e-03</internalNodes>
          <leafValues>
            -4.1574767231941223e-01 6.4101892709732056e-01</leafValues></_></weakClassifiers></_></stages>
  <features>
    <_>
      <rects>
        <_>
          0 3 2 13 -1.</_>
        <_>
          1 3 1 13 2.</_></rects>
      <tilted>0</tilted></_>
    <_>
      <rects>
        <_>
          0 3 2 14 -1.</_>
        <_>
          1 3 1 14 2.</_></rects>
      <tilted>0</tilted></_>
    <_>
      <rects>
        <_>
          0 5 2 13 -1.</_>
        <_>
          1 5 1 13 2.</_></rects>
      <tilted>0</tilted></_>
    <_>
      <rects>
        <_>
          0 17 15 3 -1.</_>
        <_>
          0 18 15 1 3.</_></rects>
      <tilted>0</tilted></_>
    <_>
      <rects>
        <_>
          0 18 17 2 -1.</_>
        <_>
          0 19 17 1 2.</_></rects>
      <tilted>0</tilted></_>
    <_>
      <rects>
        <_>
          1 2 8 4 -1.</_>
        <_>
          1 2 4 2 2.</_>
        <_>
          5 4 4 2 2.</_></rects>
      <tilted>0</tilted></_>
    <_>
      <rects>
        <_>
          1 6 1 9 -1.</_>
        <_>
          1 9 1 3 3.</_></rects>
      <tilted>0</tilted></_>
    <_>
      <rects>
        <_>
          1 7 1 6 -1.</_>
        <_>
          1 9 1 2 3.</_></rects>
      <tilted>0</tilted></_>
    <_>
      <rects>
        <_>
          1 8 1 6 -1.</_>
        <_>
          1 10 1 2 3.</_></rects>
      <tilted>0</tilted></_>
    <_>
      <rects>
        <_>
          2 4 10 2 -1.</_>
        <_>
          2 4 5 1 2.</_>
        <_>
          7 5 5 1 2.</_></rects>
      <tilted>0</tilted></_>
    <_>
      <rects>
        <_>
          2 5 2 11 -1.</_>
        <_>
          3 5 1 11 2.</_></rects>
      <tilted>0</tilted></_>
    <_>
      <rects>
        <_>
          2 6 2 11 -1.</_>
        <_>
          3 6 1 11 2.</_></rects>
      <tilted>0</tilted></_>
    <_>
      <rects>
        <_>
          3 4 4 2 -1.</_>
        <_>
          3 5 4 1 2.</_></rects>
      <tilted>0</tilted></_>
    <_>
      <rects>
        <_>
          4 1 13 3 -1.</_>
        <_>
          4 2 13 1 3.</_></rects>
      <tilted>0</tilted></_>
    <_>
      <rects>
        <_>
          4 2 11 2 -1.</_>
        <_>
          4 3 11 1 2.</_></rects>
      <tilted>0</tilted></_>
    <_>
      <rects>
        <_>
          4 3 4 2 -1.</_>
        <_>
          4 4 4 1 2.</_></rects>
      <tilted>0</tilted></_>
    <_>
      <rects>
        <_>
          4 13 14 6 -1.</_>
        <_>
          4 16 14 3 2.</_></rects>
      <tilted>0</tilted></_>
    <_>
      <rects>
        <_>
          4 17 13 3 -1.</_>
        <_>
          4 18 13 1 3.</_></rects>
      <tilted>0</tilted></_>
    <_>
      <rects>
        <_>
          4 17 14 3 -1.</_>
        <_>
          4 18 14 1 3.</_></rects>
      <tilted>0</tilted></_>
    <_>
      <rects>
        <_>
          5 0 15 6 -1.</_>
        <_>
          5 2 15 2 3.</_></rects>
      <tilted>0</tilted></_>
    <_>
      <rects>
        <_>
          5 1 13 3 -1.</_>
        <_>
          5 2 13 1 3.</_></rects>
      <tilted>0</tilted></_>
    <_>
      <rects>
        <_>
          5 17 12 3 -1.</_>
        <_>
          5 18 12 1 3.</_></rects>
      <tilted>0</tilted></_>
    <_>
      <rects>
        <_>
          7 5 4 2 -1.</_>
        <_>
          7 6 4 1 2.</_></rects>
      <tilted>0</tilted></_>
    <_>
      <rects>
        <_>
          7 9 3 2 -1.</_>
        <_>
          7 10 3 1 2.</_></rects>
      <tilted>0</tilted></_>
    <_>
      <rects>
        <_>
          8 0 3 4 -1.</_>
        <_>
          8 2 3 2 2.</_></rects>
      <tilted>0</tilted></_>
    <_>
      <rects>
        <_>
          8 5 2 4 -1.</_>
        <_>
          8 7 2 2 2.</_></rects>
      <tilted>0</tilted></_>
    <_>
      <rects>
        <_>
          8 8 3 4 -1.</_>
        <_>
          8 10 3 2 2.</_></rects>
      <tilted>0</tilted></_>
    <_>
      <rects>
        <_>
          9 5 2 7 -1.</_>
        <_>
          10 5 1 7 2.</_></rects>
      <tilted>0</tilted></_>
    <_>
      <rects>
        <_>
          9 5 3 4 -1.</_>
        <_>
          9 7 3 2 2.</_></rects>
      <tilted>0</tilted></_>
    <_>
      <rects>
        <_>
          9 6 2 6 -1.</_>
        <_>
          10 6 1 6 2.</_></rects>
      <tilted>0</tilted></_>
    <_>
      <rects>
        <_>
          9 6 2 6 -1.</_>
        <_>
          9 9 2 3 2.</_></rects>
      <tilted>0</tilted></_>
    <_>
      <rects>
        <_>
          9 6 4 6 -1.</_>
        <_>
          11 6 2 6 2.</_></rects>
      <tilted>0</tilted></_>
    <_>
      <rects>
        <_>
          9 6 3 6 -1.</_>
        <_>
          9 8 3 2 3.</_></rects>
      <tilted>0</tilted></_>
    <_>
      <rects>
        <_>
          9 7 1 6 -1.</_>
        <_>
          9 10 1 3 2.</_></rects>
      <tilted>0</tilted></_>
    <_>
      <rects>
        <_>
          9 8 1 4 -1.</_>
        <_>
          9 10 1 2 2.</_></rects>
      <tilted>0</tilted></_>
    <_>
      <rects>
        <_>
          9 9 2 3 -1.</_>
        <_>
          10 9 1 3 2.</_></rects>
      <tilted>0</tilted></_>
    <_>
      <rects>
        <_>
          11 10 1 2 -1.</_>
        <_>
          11 11 1 1 2.</_></rects>
      <tilted>0</tilted></_>
    <_>
      <rects>
        <_>
          13 2 4 4 -1.</_>
        <_>
          13 4 4 2 2.</_></rects>
      <tilted>0</tilted></_>
    <_>
      <rects>
        <_>
          18 6 2 9 -1.</_>
        <_>
          18 9 2 3 3.</_></rects>
      <tilted>0</tilted></_></features></cascade>
</opencv_storage>
