<?xml version="1.0"?>
<opencv_storage>
<cascade>
  <stageType>BOOST</stageType>
  <featureType>HAAR</featureType>
  <height>20</height>
  <width>20</width>
  <stageParams>
    <boostType>GAB</boostType>
    <minHitRate>9.9500000476837158e-01</minHitRate>
    <maxFalseAlarm>5.0000000000000000e-01</maxFalseAlarm>
    <weightTrimRate>9.4999999999999996e-01</weightTrimRate>
    <maxDepth>1</maxDepth>
    <maxWeakCount>100</maxWeakCount></stageParams>
  <featureParams>
    <maxCatCount>0</maxCatCount>
    <featSize>1</featSize>
    <mode>BASIC</mode></featureParams>
  <stageNum>13</stageNum>
  <stages>
    <!-- stage 0 -->
    <_>
      <maxWeakCount>3</maxWeakCount>
      <stageThreshold>-7.3142826557159424e-01</stageThreshold>
      <weakClassifiers>
        <_>
          <internalNodes>
            0 -1 31 -1.9331320072524250e-04</internalNodes>
          <leafValues>
            -8.7064677476882935e-01 7.2115385532379150e-01</leafValues></_>
        <_>
          <internalNodes>
            0 -1 0 1.1511513963341713e-02</internalNodes>
          <leafValues>
            -5.7039994001388550e-01 7.9091805219650269e-01</leafValues></_>
        <_>
          <internalNodes>
            0 -1 19 1.0699872858822346e-02</internalNodes>
          <leafValues>
            -6.0408771038055420e-01 7.0961844921112061e-01</leafValues></_></weakClassifiers></_>
    <!-- stage 1 -->
    <_>
      <maxWeakCount>5</maxWeakCount>
      <stageThreshold>-3.6974295973777771e-01</stageThreshold>
      <weakClassifiers>
        <_>
          <internalNodes>
            0 -1 11 -3.0977209098637104e-03</internalNodes>
          <leafValues>
            7.8151261806488037e-01 -4.9568220973014832e-01</leafValues></_>
        <_>
          <internalNodes>
            0 -1 6 -7.1140774525702000e-03</internalNodes>
          <leafValues>
            7.7225852012634277e-01 -4.1694486141204834e-01</leafValues></_>
        <_>
          <internalNodes>
            0 -1 4 3.0579892918467522e-02</internalNodes>
          <leafValues>
            -5.0510412454605103e-01 6.5809851884841919e-01</leafValues></_>
        <_>
          <internalNodes>
            0 -1 5 1.9073538482189178e-02</internalNodes>
          <leafValues>
            -4.7215971350669861e-01 7.2480988502502441e-01</leafValues></_>
        <_>
          <internalNodes>
            0 -1 41 4.7776219435036182e-04</internalNodes>
          <leafValues>
            3.5694527626037598e-01 -8.7009024620056152e-01</leafValues></_></weakClassifiers></_>
    <!-- stage 2 -->
    <_>
      <maxWeakCount>1</maxWeakCount>
      <stageThreshold>6.0790050029754639e-01</stageThreshold>
      <weakClassifiers>
        <_>
          <internalNodes>
            0 -1 35 -1.4619561843574047e-03</internalNodes>
          <leafValues>
            -9.9293285608291626e-01 6.0790050029754639e-01</leafValues></_></weakClassifiers></_>
    <!-- stage 3 -->
    <_>
      <maxWeakCount>3</maxWeakCount>
      <stageThreshold>-7.9195344448089600e-01</stageThreshold>
      <weakClassifiers>
        <_>
          <internalNodes>
            0 -1 35 1.3614426134154201e-03</internalNodes>
          <leafValues>
            6.9929522275924683e-01 -9.1957104206085205e-01</leafValues></_>
        <_>
          <internalNodes>
            0 -1 25 2.6984502255800180e-05</internalNodes>
          <leafValues>
            -7.7962952852249146e-01 4.6412369608879089e-01</leafValues></_>
        <_>
          <internalNodes>
            0 -1 52 -5.2355433581396937e-05</internalNodes>
          <leafValues>
            4.4208809733390808e-01 -7.1161913871765137e-01</leafValues></_></weakClassifiers></_>
    <!-- stage 4 -->
    <_>
      <maxWeakCount>4</maxWeakCount>
      <stageThreshold>-4.1265910863876343e-01</stageThreshold>
      <weakClassifiers>
        <_>
          <internalNodes>
            0 -1 42 -2.8013316914439201e-03</internalNodes>
          <leafValues>
            -1. 5.7255184650421143e-01</leafValues></_>
        <_>
          <internalNodes>
            0 -1 3 1.4757046476006508e-02</internalNodes>
          <leafValues>
            -5.6849789619445801e-01 7.1261882781982422e-01</leafValues></_>
        <_>
          <internalNodes>
            0 -1 36 -2.6311824331060052e-04</internalNodes>
          <leafValues>
            4.7847986221313477e-01 -9.2872655391693115e-01</leafValues></_>
        <_>
          <internalNodes>
            0 -1 9 8.0305486917495728e-03</internalNodes>
          <leafValues>
            -5.7863336801528931e-01 5.1201349496841431e-01</leafValues></_></weakClassifiers></_>
    <!-- stage 5 -->
    <_>
      <maxWeakCount>5</maxWeakCount>
      <stageThreshold>-2.6017928123474121e-01</stageThreshold>
      <weakClassifiers>
        <_>
          <internalNodes>
            0 -1 45 -2.6220290237688459e-05</internalNodes>
          <leafValues>
            6.0269862413406372e-01 -8.0379748344421387e-01</leafValues></_>
        <_>
          <internalNodes>
            0 -1 45 -7.1334955282509327e-04</internalNodes>
          <leafValues>
            -9.4210910797119141e-01 4.4925940036773682e-01</leafValues></_>
        <_>
          <internalNodes>
            0 -1 14 -3.0282782390713692e-03</internalNodes>
          <leafValues>
            4.9503099918365479e-01 -5.9439742565155029e-01</leafValues></_>
        <_>
          <internalNodes>
            0 -1 7 -1.8829522887244821e-03</internalNodes>
          <leafValues>
            4.2528560757637024e-01 -6.6519272327423096e-01</leafValues></_>
        <_>
          <internalNodes>
            0 -1 28 2.5913372155628167e-05</internalNodes>
          <leafValues>
            -8.2595783472061157e-01 3.6872461438179016e-01</leafValues></_></weakClassifiers></_>
    <!-- stage 6 -->
    <_>
      <maxWeakCount>4</maxWeakCount>
      <stageThreshold>-5.4933547973632812e-01</stageThreshold>
      <weakClassifiers>
        <_>
          <internalNodes>
            0 -1 43 3.7199379876255989e-03</internalNodes>
          <leafValues>
            5.7841724157333374e-01 -9.7692304849624634e-01</leafValues></_>
        <_>
          <internalNodes>
            0 -1 33 6.5034232102334499e-04</internalNodes>
          <leafValues>
            -8.8248950242996216e-01 3.8201132416725159e-01</leafValues></_>
        <_>
          <internalNodes>
            0 -1 55 5.5222427472472191e-03</internalNodes>
          <leafValues>
            -5.1716709136962891e-01 6.0838884115219116e-01</leafValues></_>
        <_>
          <internalNodes>
            0 -1 39 3.6837803781963885e-04</internalNodes>
          <leafValues>
            2.7190381288528442e-01 -9.9072521924972534e-01</leafValues></_></weakClassifiers></_>
    <!-- stage 7 -->
    <_>
      <maxWeakCount>5</maxWeakCount>
      <stageThreshold>-5.6407517194747925e-01</stageThreshold>
      <weakClassifiers>
        <_>
          <internalNodes>
            0 -1 3 5.6297564879059792e-03</internalNodes>
          <leafValues>
            -4.6808511018753052e-01 6.5254235267639160e-01</leafValues></_>
        <_>
          <internalNodes>
            0 -1 15 -1.8620686605572701e-03</internalNodes>
          <leafValues>
            6.1643141508102417e-01 -4.8232403397560120e-01</leafValues></_>
        <_>
          <internalNodes>
            0 -1 17 1.2280421331524849e-02</internalNodes>
          <leafValues>
            -4.1447025537490845e-01 6.6811507940292358e-01</leafValues></_>
        <_>
          <internalNodes>
            0 -1 40 6.5935477323364466e-05</internalNodes>
          <leafValues>
            -9.2796283960342407e-01 3.1522235274314880e-01</leafValues></_>
        <_>
          <internalNodes>
            0 -1 58 -5.2087362855672836e-03</internalNodes>
          <leafValues>
            5.3319114446640015e-01 -4.9061590433120728e-01</leafValues></_></weakClassifiers></_>
    <!-- stage 8 -->
    <_>
      <maxWeakCount>6</maxWeakCount>
      <stageThreshold>-4.4294801354408264e-01</stageThreshold>
      <weakClassifiers>
        <_>
          <internalNodes>
            0 -1 32 2.0714262500405312e-03</internalNodes>
          <leafValues>
            5.3188508749008179e-01 -9.3721973896026611e-01</leafValues></_>
        <_>
          <internalNodes>
            0 -1 13 -6.5462738275527954e-03</internalNodes>
          <leafValues>
            5.1541918516159058e-01 -5.7345920801162720e-01</leafValues></_>
        <_>
          <internalNodes>
            0 -1 22 5.5396435782313347e-03</internalNodes>
          <leafValues>
            -4.7276481986045837e-01 5.8043110370635986e-01</leafValues></_>
        <_>
          <internalNodes>
            0 -1 16 1.6930274665355682e-02</internalNodes>
          <leafValues>
            -5.6579577922821045e-01 4.4871827960014343e-01</leafValues></_>
        <_>
          <internalNodes>
            0 -1 29 -8.5107749328017235e-05</internalNodes>
          <leafValues>
            -6.5716004371643066e-01 3.4437471628189087e-01</leafValues></_>
        <_>
          <internalNodes>
            0 -1 50 -2.1744341211160645e-05</internalNodes>
          <leafValues>
            2.9281204938888550e-01 -7.1459966897964478e-01</leafValues></_></weakClassifiers></_>
    <!-- stage 9 -->
    <_>
      <maxWeakCount>6</maxWeakCount>
      <stageThreshold>-3.5190117359161377e-01</stageThreshold>
      <weakClassifiers>
        <_>
          <internalNodes>
            0 -1 34 -6.3606980256736279e-04</internalNodes>
          <leafValues>
            -9.6019899845123291e-01 5.1276743412017822e-01</leafValues></_>
        <_>
          <internalNodes>
            0 -1 56 6.8075451999902725e-03</internalNodes>
          <leafValues>
            -4.1802838444709778e-01 6.7601853609085083e-01</leafValues></_>
        <_>
          <internalNodes>
            0 -1 49 1.0437309741973877e-02</internalNodes>
          <leafValues>
            -3.6112335324287415e-01 5.9331023693084717e-01</leafValues></_>
        <_>
          <internalNodes>
            0 -1 24 6.2919469201005995e-05</internalNodes>
          <leafValues>
            -6.5221530199050903e-01 3.3649682998657227e-01</leafValues></_>
        <_>
          <internalNodes>
            0 -1 30 8.6138141341507435e-04</internalNodes>
          <leafValues>
            2.4170923233032227e-01 -9.1291809082031250e-01</leafValues></_>
        <_>
          <internalNodes>
            0 -1 27 1.2724588625133038e-02</internalNodes>
          <leafValues>
            -4.6352922916412354e-01 5.7652479410171509e-01</leafValues></_></weakClassifiers></_>
    <!-- stage 10 -->
    <_>
      <maxWeakCount>5</maxWeakCount>
      <stageThreshold>-6.1788976192474365e-01</stageThreshold>
      <weakClassifiers>
        <_>
          <internalNodes>
            0 -1 38 4.8582231102045625e-05</internalNodes>
          <leafValues>
            -6.8641114234924316e-01 5.4805576801300049e-01</leafValues></_>
        <_>
          <internalNodes>
            0 -1 1 4.5972920954227448e-02</internalNodes>
          <leafValues>
            -4.3265745043754578e-01 5.5882179737091064e-01</leafValues></_>
        <_>
          <internalNodes>
            0 -1 12 -6.8412302061915398e-04</internalNodes>
          <leafValues>
            4.9250328540802002e-01 -5.6365144252777100e-01</leafValues></_>
        <_>
          <internalNodes>
            0 -1 54 -1.7476690933108330e-02</internalNodes>
          <leafValues>
            6.3661968708038330e-01 -3.5893338918685913e-01</leafValues></_>
        <_>
          <internalNodes>
            0 -1 44 -1.7151599749922752e-03</internalNodes>
          <leafValues>
            -9.8216265439987183e-01 1.8929679691791534e-01</leafValues></_></weakClassifiers></_>
    <!-- stage 11 -->
    <_>
      <maxWeakCount>7</maxWeakCount>
      <stageThreshold>-8.5723495483398438e-01</stageThreshold>
      <weakClassifiers>
        <_>
          <internalNodes>
            0 -1 2 9.6456818282604218e-03</internalNodes>
          <leafValues>
            -3.4065935015678406e-01 6.6666668653488159e-01</leafValues></_>
        <_>
          <internalNodes>
            0 -1 48 -4.7558787628076971e-05</internalNodes>
          <leafValues>
            4.4086131453514099e-01 -5.8656764030456543e-01</leafValues></_>
        <_>
          <internalNodes>
            0 -1 10 -7.7402265742421150e-03</internalNodes>
          <leafValues>
            4.5997822284698486e-01 -4.5423823595046997e-01</leafValues></_>
        <_>
          <internalNodes>
            0 -1 23 -3.9091003127396107e-03</internalNodes>
          <leafValues>
            3.7839800119400024e-01 -5.0676393508911133e-01</leafValues></_>
        <_>
          <internalNodes>
            0 -1 47 7.2248809738084674e-04</internalNodes>
          <leafValues>
            2.1882207691669464e-01 -9.2960047721862793e-01</leafValues></_>
        <_>
          <internalNodes>
            0 -1 51 -4.6844750613672659e-05</internalNodes>
          <leafValues>
            2.7232703566551208e-01 -5.7057607173919678e-01</leafValues></_>
        <_>
          <internalNodes>
            0 -1 53 4.4127930887043476e-03</internalNodes>
          <leafValues>
            -3.7437140941619873e-01 5.8683478832244873e-01</leafValues></_></weakClassifiers></_>
    <!-- stage 12 -->
    <_>
      <maxWeakCount>8</maxWeakCount>
      <stageThreshold>-1.2325959205627441e+00</stageThreshold>
      <weakClassifiers>
        <_>
          <internalNodes>
            0 -1 8 -1.4736296143382788e-03</internalNodes>
          <leafValues>
            6.0401004552841187e-01 -3.8189846277236938e-01</leafValues></_>
        <_>
          <internalNodes>
            0 -1 18 1.2228498235344887e-02</internalNodes>
          <leafValues>
            -4.5770120620727539e-01 4.6660017967224121e-01</leafValues></_>
        <_>
          <internalNodes>
            0 -1 26 1.1576063843676820e-04</internalNodes>
          <leafValues>
            -6.1081898212432861e-01 3.4881404042243958e-01</leafValues></_>
        <_>
          <internalNodes>
            0 -1 37 -4.8199752200162038e-05</internalNodes>
          <leafValues>
            2.6887902617454529e-01 -7.1039301156997681e-01</leafValues></_>
        <_>
          <internalNodes>
            0 -1 20 -1.0574382729828358e-02</internalNodes>
          <leafValues>
            5.0359499454498291e-01 -4.1130581498146057e-01</leafValues></_>
        <_>
          <internalNodes>
            0 -1 21 -4.6573169529438019e-03</internalNodes>
          <leafValues>
            4.7892343997955322e-01 -4.2761585116386414e-01</leafValues></_>
        <_>
          <internalNodes>
            0 -1 57 -5.4184519685804844e-03</internalNodes>
          <leafValues>
            4.8893570899963379e-01 -3.6844226717948914e-01</leafValues></_>
        <_>
          <internalNodes>
            0 -1 46 2.8945287340320647e-04</internalNodes>
          <leafValues>
            1.9003821909427643e-01 -9.7967469692230225e-01</leafValues></_></weakClassifiers></_></stages>
  <features>
    <_>
      <rects>
        <_>
          0 2 2 15 -1.</_>
        <_>
          1 2 1 15 2.</_></rects>
      <tilted>0</tilted></_>
    <_>
      <rects>
        <_>
          0 3 6 14 -1.</_>
        <_>
          2 3 2 14 3.</_></rects>
      <tilted>0</tilted></_>
    <_>
      <rects>
        <_>
          0 4 2 13 -1.</_>
        <_>
          1 4 1 13 2.</_></rects>
      <tilted>0</tilted></_>
    <_>
      <rects>
        <_>
          0 4 2 14 -1.</_>
        <_>
          1 4 1 14 2.</_></rects>
      <tilted>0</tilted></_>
    <_>
      <rects>
        <_>
          0 4 6 14 -1.</_>
        <_>
          2 4 2 14 3.</_></rects>
      <tilted>0</tilted></_>
    <_>
      <rects>
        <_>
          1 0 14 6 -1.</_>
        <_>
          1 2 14 2 3.</_></rects>
      <tilted>0</tilted></_>
    <_>
      <rects>
        <_>
          1 6 1 9 -1.</_>
        <_>
          1 9 1 3 3.</_></rects>
      <tilted>0</tilted></_>
    <_>
      <rects>
        <_>
          1 7 1 6 -1.</_>
        <_>
          1 9 1 2 3.</_></rects>
      <tilted>0</tilted></_>
    <_>
      <rects>
        <_>
          1 7 3 6 -1.</_>
        <_>
          1 9 3 2 3.</_></rects>
      <tilted>0</tilted></_>
    <_>
      <rects>
        <_>
          1 17 16 3 -1.</_>
        <_>
          1 18 16 1 3.</_></rects>
      <tilted>0</tilted></_>
    <_>
      <rects>
        <_>
          2 4 2 10 -1.</_>
        <_>
          3 4 1 10 2.</_></rects>
      <tilted>0</tilted></_>
    <_>
      <rects>
        <_>
          2 5 2 11 -1.</_>
        <_>
          3 5 1 11 2.</_></rects>
      <tilted>0</tilted></_>
    <_>
      <rects>
        <_>
          2 5 9 4 -1.</_>
        <_>
          2 7 9 2 2.</_></rects>
      <tilted>0</tilted></_>
    <_>
      <rects>
        <_>
          2 6 2 11 -1.</_>
        <_>
          3 6 1 11 2.</_></rects>
      <tilted>0</tilted></_>
    <_>
      <rects>
        <_>
          3 3 5 2 -1.</_>
        <_>
          3 4 5 1 2.</_></rects>
      <tilted>0</tilted></_>
    <_>
      <rects>
        <_>
          3 4 4 2 -1.</_>
        <_>
          3 5 4 1 2.</_></rects>
      <tilted>0</tilted></_>
    <_>
      <rects>
        <_>
          3 13 15 6 -1.</_>
        <_>
          3 16 15 3 2.</_></rects>
      <tilted>0</tilted></_>
    <_>
      <rects>
        <_>
          3 17 13 3 -1.</_>
        <_>
          3 18 13 1 3.</_></rects>
      <tilted>0</tilted></_>
    <_>
      <rects>
        <_>
          4 0 14 6 -1.</_>
        <_>
          4 2 14 2 3.</_></rects>
      <tilted>0</tilted></_>
    <_>
      <rects>
        <_>
          4 13 13 6 -1.</_>
        <_>
          4 16 13 3 2.</_></rects>
      <tilted>0</tilted></_>
    <_>
      <rects>
        <_>
          4 18 16 2 -1.</_>
        <_>
          4 19 16 1 2.</_></rects>
      <tilted>0</tilted></_>
    <_>
      <rects>
        <_>
          5 1 4 8 -1.</_>
        <_>
          7 1 2 8 2.</_></rects>
      <tilted>0</tilted></_>
    <_>
      <rects>
        <_>
          5 1 12 3 -1.</_>
        <_>
          5 2 12 1 3.</_></rects>
      <tilted>0</tilted></_>
    <_>
      <rects>
        <_>
          5 2 11 2 -1.</_>
        <_>
          5 3 11 1 2.</_></rects>
      <tilted>0</tilted></_>
    <_>
      <rects>
        <_>
          5 8 6 1 -1.</_>
        <_>
          7 8 2 1 3.</_></rects>
      <tilted>0</tilted></_>
    <_>
      <rects>
        <_>
          6 6 6 5 -1.</_>
        <_>
          8 6 2 5 3.</_></rects>
      <tilted>0</tilted></_>
    <_>
      <rects>
        <_>
          7 4 1 4 -1.</_>
        <_>
          7 6 1 2 2.</_></rects>
      <tilted>0</tilted></_>
    <_>
      <rects>
        <_>
          7 17 11 3 -1.</_>
        <_>
          7 18 11 1 3.</_></rects>
      <tilted>0</tilted></_>
    <_>
      <rects>
        <_>
          8 4 1 4 -1.</_>
        <_>
          8 6 1 2 2.</_></rects>
      <tilted>0</tilted></_>
    <_>
      <rects>
        <_>
          8 4 2 2 -1.</_>
        <_>
          8 5 2 1 2.</_></rects>
      <tilted>0</tilted></_>
    <_>
      <rects>
        <_>
          8 5 1 4 -1.</_>
        <_>
          8 7 1 2 2.</_></rects>
      <tilted>0</tilted></_>
    <_>
      <rects>
        <_>
          8 5 3 4 -1.</_>
        <_>
          8 7 3 2 2.</_></rects>
      <tilted>0</tilted></_>
    <_>
      <rects>
        <_>
          8 6 4 6 -1.</_>
        <_>
          8 6 2 3 2.</_>
        <_>
          10 9 2 3 2.</_></rects>
      <tilted>0</tilted></_>
    <_>
      <rects>
        <_>
          8 6 4 6 -1.</_>
        <_>
          8 8 4 2 3.</_></rects>
      <tilted>0</tilted></_>
    <_>
      <rects>
        <_>
          8 7 4 4 -1.</_>
        <_>
          8 7 2 2 2.</_>
        <_>
          10 9 2 2 2.</_></rects>
      <tilted>0</tilted></_>
    <_>
      <rects>
        <_>
          8 7 4 3 -1.</_>
        <_>
          10 7 2 3 2.</_></rects>
      <tilted>0</tilted></_>
    <_>
      <rects>
        <_>
          8 8 4 4 -1.</_>
        <_>
          8 10 4 2 2.</_></rects>
      <tilted>0</tilted></_>
    <_>
      <rects>
        <_>
          8 10 2 2 -1.</_>
        <_>
          8 11 2 1 2.</_></rects>
      <tilted>0</tilted></_>
    <_>
      <rects>
        <_>
          9 5 3 4 -1.</_>
        <_>
          9 7 3 2 2.</_></rects>
      <tilted>0</tilted></_>
    <_>
      <rects>
        <_>
          9 6 1 6 -1.</_>
        <_>
          9 9 1 3 2.</_></rects>
      <tilted>0</tilted></_>
    <_>
      <rects>
        <_>
          9 6 2 6 -1.</_>
        <_>
          9 8 2 2 3.</_></rects>
      <tilted>0</tilted></_>
    <_>
      <rects>
        <_>
          9 6 4 3 -1.</_>
        <_>
          11 6 2 3 2.</_></rects>
      <tilted>0</tilted></_>
    <_>
      <rects>
        <_>
          9 6 2 6 -1.</_>
        <_>
          9 9 2 3 2.</_></rects>
      <tilted>0</tilted></_>
    <_>
      <rects>
        <_>
          9 6 3 6 -1.</_>
        <_>
          9 8 3 2 3.</_></rects>
      <tilted>0</tilted></_>
    <_>
      <rects>
        <_>
          9 8 2 4 -1.</_>
        <_>
          9 10 2 2 2.</_></rects>
      <tilted>0</tilted></_>
    <_>
      <rects>
        <_>
          9 10 2 2 -1.</_>
        <_>
          9 11 2 1 2.</_></rects>
      <tilted>0</tilted></_>
    <_>
      <rects>
        <_>
          10 8 2 2 -1.</_>
        <_>
          10 9 2 1 2.</_></rects>
      <tilted>0</tilted></_>
    <_>
      <rects>
        <_>
          10 9 2 3 -1.</_>
        <_>
          10 10 2 1 3.</_></rects>
      <tilted>0</tilted></_>
    <_>
      <rects>
        <_>
          10 11 1 2 -1.</_>
        <_>
          10 12 1 1 2.</_></rects>
      <tilted>0</tilted></_>
    <_>
      <rects>
        <_>
          11 3 8 3 -1.</_>
        <_>
          15 3 4 3 2.</_></rects>
      <tilted>0</tilted></_>
    <_>
      <rects>
        <_>
          11 10 1 2 -1.</_>
        <_>
          11 11 1 1 2.</_></rects>
      <tilted>0</tilted></_>
    <_>
      <rects>
        <_>
          12 7 2 1 -1.</_>
        <_>
          13 7 1 1 2.</_></rects>
      <tilted>0</tilted></_>
    <_>
      <rects>
        <_>
          12 9 2 1 -1.</_>
        <_>
          13 9 1 1 2.</_></rects>
      <tilted>0</tilted></_>
    <_>
      <rects>
        <_>
          16 9 2 8 -1.</_>
        <_>
          16 9 1 4 2.</_>
        <_>
          17 13 1 4 2.</_></rects>
      <tilted>0</tilted></_>
    <_>
      <rects>
        <_>
          17 3 2 12 -1.</_>
        <_>
          17 7 2 4 3.</_></rects>
      <tilted>0</tilted></_>
    <_>
      <rects>
        <_>
          17 6 3 11 -1.</_>
        <_>
          18 6 1 11 3.</_></rects>
      <tilted>0</tilted></_>
    <_>
      <rects>
        <_>
          17 7 3 9 -1.</_>
        <_>
          18 7 1 9 3.</_></rects>
      <tilted>0</tilted></_>
    <_>
      <rects>
        <_>
          17 7 2 9 -1.</_>
        <_>
          17 10 2 3 3.</_></rects>
      <tilted>0</tilted></_>
    <_>
      <rects>
        <_>
          18 3 1 12 -1.</_>
        <_>
          18 7 1 4 3.</_></rects>
      <tilted>0</tilted></_></features></cascade>
</opencv_storage>
